<?xml version="1.0"?>
<opencv_storage>
<cascade>
  <stageType>BOOST</stageType>
  <featureType>HAAR</featureType>
  <height>24</height>
  <width>24</width>
  <stageParams>
    <boostType>GAB</boostType>
    <minHitRate>9.9500000476837158e-01</minHitRate>
    <maxFalseAlarm>5.0000000000000000e-01</maxFalseAlarm>
    <weightTrimRate>9.4999999999999996e-01</weightTrimRate>
    <maxDepth>1</maxDepth>
    <maxWeakCount>100</maxWeakCount></stageParams>
  <featureParams>
    <maxCatCount>0</maxCatCount>
    <featSize>1</featSize>
    <mode>BASIC</mode></featureParams>
  <stageNum>13</stageNum>
  <stages>
    <!-- stage 0 -->
    <_>
      <maxWeakCount>3</maxWeakCount>
      <stageThreshold>-1.1786403656005859e+00</stageThreshold>
      <weakClassifiers>
        <_>
          <internalNodes>
            0 -1 8 1.0717527568340302e-01</internalNodes>
          <leafValues>
            -9.5995998382568359e-01 8.8959658145904541e-01</leafValues></_>
        <_>
          <internalNodes>
            0 -1 9 1.4948025345802307e-01</internalNodes>
          <leafValues>
            -9.5766788721084595e-01 5.9924924373626709e-01</leafValues></_>
        <_>
          <internalNodes>
            0 -1 45 -2.9577929526567459e-02</internalNodes>
          <leafValues>
            8.2012879848480225e-01 -8.1792968511581421e-01</leafValues></_></weakClassifiers></_>
    <!-- stage 1 -->
    <_>
      <maxWeakCount>3</maxWeakCount>
      <stageThreshold>-1.1877893209457397e+00</stageThreshold>
      <weakClassifiers>
        <_>
          <internalNodes>
            0 -1 16 1.1493813991546631e-01</internalNodes>
          <leafValues>
            -9.3849205970764160e-01 8.7878787517547607e-01</leafValues></_>
        <_>
          <internalNodes>
            0 -1 39 1.1967185139656067e-01</internalNodes>
          <leafValues>
            -8.5845339298248291e-01 6.7207276821136475e-01</leafValues></_>
        <_>
          <internalNodes>
            0 -1 2 -1.5639405697584152e-02</internalNodes>
          <leafValues>
            6.0915619134902954e-01 -8.5685837268829346e-01</leafValues></_></weakClassifiers></_>
    <!-- stage 2 -->
    <_>
      <maxWeakCount>5</maxWeakCount>
      <stageThreshold>-1.4902063608169556e+00</stageThreshold>
      <weakClassifiers>
        <_>
          <internalNodes>
            0 -1 19 7.1220524609088898e-02</internalNodes>
          <leafValues>
            -9.1983556747436523e-01 7.1428573131561279e-01</leafValues></_>
        <_>
          <internalNodes>
            0 -1 44 -4.2152181267738342e-02</internalNodes>
          <leafValues>
            7.1577614545822144e-01 -7.4744009971618652e-01</leafValues></_>
        <_>
          <internalNodes>
            0 -1 23 1.1220521293580532e-02</internalNodes>
          <leafValues>
            -9.3073391914367676e-01 4.4275972247123718e-01</leafValues></_>
        <_>
          <internalNodes>
            0 -1 14 -5.2175171673297882e-02</internalNodes>
          <leafValues>
            6.2536656856536865e-01 -6.5136986970901489e-01</leafValues></_>
        <_>
          <internalNodes>
            0 -1 20 2.1074763499200344e-03</internalNodes>
          <leafValues>
            -9.7607696056365967e-01 3.8567945361137390e-01</leafValues></_></weakClassifiers></_>
    <!-- stage 3 -->
    <_>
      <maxWeakCount>3</maxWeakCount>
      <stageThreshold>-1.1915583610534668e+00</stageThreshold>
      <weakClassifiers>
        <_>
          <internalNodes>
            0 -1 21 -4.6657774597406387e-02</internalNodes>
          <leafValues>
            6.7142856121063232e-01 -8.6826348304748535e-01</leafValues></_>
        <_>
          <internalNodes>
            0 -1 18 -4.0060207247734070e-02</internalNodes>
          <leafValues>
            6.2888467311859131e-01 -7.4640232324600220e-01</leafValues></_>
        <_>
          <internalNodes>
            0 -1 27 1.7152450978755951e-02</internalNodes>
          <leafValues>
            -9.2720872163772583e-01 4.2310738563537598e-01</leafValues></_></weakClassifiers></_>
    <!-- stage 4 -->
    <_>
      <maxWeakCount>5</maxWeakCount>
      <stageThreshold>-1.3355915546417236e+00</stageThreshold>
      <weakClassifiers>
        <_>
          <internalNodes>
            0 -1 10 9.9298432469367981e-02</internalNodes>
          <leafValues>
            -8.5221672058105469e-01 6.8058967590332031e-01</leafValues></_>
        <_>
          <internalNodes>
            0 -1 4 -6.0771860182285309e-02</internalNodes>
          <leafValues>
            5.8564019203186035e-01 -7.3115694522857666e-01</leafValues></_>
        <_>
          <internalNodes>
            0 -1 5 -3.2996937632560730e-02</internalNodes>
          <leafValues>
            7.8650730848312378e-01 -5.5817764997482300e-01</leafValues></_>
        <_>
          <internalNodes>
            0 -1 32 3.7725668516941369e-04</internalNodes>
          <leafValues>
            4.3002808094024658e-01 -9.1015917062759399e-01</leafValues></_>
        <_>
          <internalNodes>
            0 -1 32 -5.3977931383997202e-04</internalNodes>
          <leafValues>
            -9.6185177564620972e-01 3.7593165040016174e-01</leafValues></_></weakClassifiers></_>
    <!-- stage 5 -->
    <_>
      <maxWeakCount>4</maxWeakCount>
      <stageThreshold>-9.6644157171249390e-01</stageThreshold>
      <weakClassifiers>
        <_>
          <internalNodes>
            0 -1 4 -6.1172112822532654e-02</internalNodes>
          <leafValues>
            4.6379646658897400e-01 -9.0559822320938110e-01</leafValues></_>
        <_>
          <internalNodes>
            0 -1 43 1.6992043703794479e-02</internalNodes>
          <leafValues>
            -8.1502068042755127e-01 4.5758104324340820e-01</leafValues></_>
        <_>
          <internalNodes>
            0 -1 30 5.1427846774458885e-03</internalNodes>
          <leafValues>
            -8.4443873167037964e-01 5.1618862152099609e-01</leafValues></_>
        <_>
          <internalNodes>
            0 -1 37 -1.2169656343758106e-02</internalNodes>
          <leafValues>
            3.2601439952850342e-01 -9.0387386083602905e-01</leafValues></_></weakClassifiers></_>
    <!-- stage 6 -->
    <_>
      <maxWeakCount>3</maxWeakCount>
      <stageThreshold>-1.2421257495880127e+00</stageThreshold>
      <weakClassifiers>
        <_>
          <internalNodes>
            0 -1 47 -6.9883778691291809e-02</internalNodes>
          <leafValues>
            6.6161614656448364e-01 -8.2846003770828247e-01</leafValues></_>
        <_>
          <internalNodes>
            0 -1 11 1.3826418668031693e-02</internalNodes>
          <leafValues>
            -8.4706497192382812e-01 4.4334587454795837e-01</leafValues></_>
        <_>
          <internalNodes>
            0 -1 40 -6.7396759986877441e-02</internalNodes>
          <leafValues>
            4.3339928984642029e-01 -7.8908252716064453e-01</leafValues></_></weakClassifiers></_>
    <!-- stage 7 -->
    <_>
      <maxWeakCount>5</maxWeakCount>
      <stageThreshold>-1.5671000480651855e+00</stageThreshold>
      <weakClassifiers>
        <_>
          <internalNodes>
            0 -1 48 -3.4780044108629227e-02</internalNodes>
          <leafValues>
            4.9268293380737305e-01 -7.8063243627548218e-01</leafValues></_>
        <_>
          <internalNodes>
            0 -1 15 5.1489561796188354e-02</internalNodes>
          <leafValues>
            -8.8748133182525635e-01 3.9110615849494934e-01</leafValues></_>
        <_>
          <internalNodes>
            0 -1 35 -2.0582678553182632e-04</internalNodes>
          <leafValues>
            -9.6772539615631104e-01 2.4773344397544861e-01</leafValues></_>
        <_>
          <internalNodes>
            0 -1 1 -6.4476907253265381e-02</internalNodes>
          <leafValues>
            7.4267393350601196e-01 -4.8449772596359253e-01</leafValues></_>
        <_>
          <internalNodes>
            0 -1 29 5.9721863362938166e-04</internalNodes>
          <leafValues>
            3.3777800202369690e-01 -9.8171228170394897e-01</leafValues></_></weakClassifiers></_>
    <!-- stage 8 -->
    <_>
      <maxWeakCount>4</maxWeakCount>
      <stageThreshold>-1.0796301364898682e+00</stageThreshold>
      <weakClassifiers>
        <_>
          <internalNodes>
            0 -1 47 -7.6030023396015167e-02</internalNodes>
          <leafValues>
            5.4838711023330688e-01 -7.9391562938690186e-01</leafValues></_>
        <_>
          <internalNodes>
            0 -1 28 2.3715677671134472e-03</internalNodes>
          <leafValues>
            -9.0102106332778931e-01 3.5176029801368713e-01</leafValues></_>
        <_>
          <internalNodes>
            0 -1 34 -1.3433507410809398e-04</internalNodes>
          <leafValues>
            -9.8343616724014282e-01 2.8561663627624512e-01</leafValues></_>
        <_>
          <internalNodes>
            0 -1 17 2.4615891743451357e-03</internalNodes>
          <leafValues>
            -9.3131023645401001e-01 3.2968983054161072e-01</leafValues></_></weakClassifiers></_>
    <!-- stage 9 -->
    <_>
      <maxWeakCount>5</maxWeakCount>
      <stageThreshold>-1.2512116432189941e+00</stageThreshold>
      <weakClassifiers>
        <_>
          <internalNodes>
            0 -1 6 -4.1952226310968399e-02</internalNodes>
          <leafValues>
            4.3133461475372314e-01 -8.9613258838653564e-01</leafValues></_>
        <_>
          <internalNodes>
            0 -1 12 -2.5818219874054193e-03</internalNodes>
          <leafValues>
            5.0032317638397217e-01 -7.6185142993927002e-01</leafValues></_>
        <_>
          <internalNodes>
            0 -1 26 1.6188831068575382e-03</internalNodes>
          <leafValues>
            -8.9800310134887695e-01 3.2785913348197937e-01</leafValues></_>
        <_>
          <internalNodes>
            0 -1 7 -3.8798131048679352e-02</internalNodes>
          <leafValues>
            6.0679423809051514e-01 -5.9885066747665405e-01</leafValues></_>
        <_>
          <internalNodes>
            0 -1 41 -2.2001473233103752e-02</internalNodes>
          <leafValues>
            6.9798123836517334e-01 -4.8472064733505249e-01</leafValues></_></weakClassifiers></_>
    <!-- stage 10 -->
    <_>
      <maxWeakCount>4</maxWeakCount>
      <stageThreshold>-1.0548542737960815e+00</stageThreshold>
      <weakClassifiers>
        <_>
          <internalNodes>
            0 -1 33 2.8955026064068079e-03</internalNodes>
          <leafValues>
            -8.8014101982116699e-01 2.8196147084236145e-01</leafValues></_>
        <_>
          <internalNodes>
            0 -1 3 -1.7415937036275864e-02</internalNodes>
          <leafValues>
            4.2354956269264221e-01 -7.6621127128601074e-01</leafValues></_>
        <_>
          <internalNodes>
            0 -1 38 -1.4040389098227024e-02</internalNodes>
          <leafValues>
            2.9153993725776672e-01 -9.4375282526016235e-01</leafValues></_>
        <_>
          <internalNodes>
            0 -1 42 1.0224787890911102e-01</internalNodes>
          <leafValues>
            -8.6214447021484375e-01 4.2102628946304321e-01</leafValues></_></weakClassifiers></_>
    <!-- stage 11 -->
    <_>
      <maxWeakCount>5</maxWeakCount>
      <stageThreshold>-1.7322288751602173e+00</stageThreshold>
      <weakClassifiers>
        <_>
          <internalNodes>
            0 -1 13 -1.3596525415778160e-02</internalNodes>
          <leafValues>
            2.6003491878509521e-01 -8.6808007955551147e-01</leafValues></_>
        <_>
          <internalNodes>
            0 -1 36 2.0399088971316814e-03</internalNodes>
          <leafValues>
            -6.9886779785156250e-01 4.3160307407379150e-01</leafValues></_>
        <_>
          <internalNodes>
            0 -1 46 -2.4533388204872608e-03</internalNodes>
          <leafValues>
            4.1076248884201050e-01 -7.9905652999877930e-01</leafValues></_>
        <_>
          <internalNodes>
            0 -1 22 1.2687773443758488e-02</internalNodes>
          <leafValues>
            -9.6184384822845459e-01 3.6180004477500916e-01</leafValues></_>
        <_>
          <internalNodes>
            0 -1 24 5.2600074559450150e-04</internalNodes>
          <leafValues>
            2.7197545766830444e-01 -8.8027799129486084e-01</leafValues></_></weakClassifiers></_>
    <!-- stage 12 -->
    <_>
      <maxWeakCount>4</maxWeakCount>
      <stageThreshold>-1.7128771543502808e+00</stageThreshold>
      <weakClassifiers>
        <_>
          <internalNodes>
            0 -1 25 -2.6193171739578247e-02</internalNodes>
          <leafValues>
            4.7846889495849609e-01 -7.8486055135726929e-01</leafValues></_>
        <_>
          <internalNodes>
            0 -1 31 1.8986727809533477e-03</internalNodes>
          <leafValues>
            -8.6792683601379395e-01 3.1650239229202271e-01</leafValues></_>
        <_>
          <internalNodes>
            0 -1 0 -5.5193729698657990e-02</internalNodes>
          <leafValues>
            6.3332837820053101e-01 -5.2692741155624390e-01</leafValues></_>
        <_>
          <internalNodes>
            0 -1 49 -2.2585559636354446e-02</internalNodes>
          <leafValues>
            4.6683770418167114e-01 -8.0823487043380737e-01</leafValues></_></weakClassifiers></_></stages>
  <features>
    <_>
      <rects>
        <_>
          0 1 6 22 -1.</_>
        <_>
          2 1 2 22 3.</_></rects>
      <tilted>0</tilted></_>
    <_>
      <rects>
        <_>
          0 2 6 18 -1.</_>
        <_>
          2 2 2 18 3.</_></rects>
      <tilted>0</tilted></_>
    <_>
      <rects>
        <_>
          0 2 6 8 -1.</_>
        <_>
          3 2 3 8 2.</_></rects>
      <tilted>0</tilted></_>
    <_>
      <rects>
        <_>
          0 4 6 5 -1.</_>
        <_>
          3 4 3 5 2.</_></rects>
      <tilted>0</tilted></_>
    <_>
      <rects>
        <_>
          0 9 10 12 -1.</_>
        <_>
          0 9 5 6 2.</_>
        <_>
          5 15 5 6 2.</_></rects>
      <tilted>0</tilted></_>
    <_>
      <rects>
        <_>
          0 11 6 11 -1.</_>
        <_>
          2 11 2 11 3.</_></rects>
      <tilted>0</tilted></_>
    <_>
      <rects>
        <_>
          0 17 15 3 -1.</_>
        <_>
          5 17 5 3 3.</_></rects>
      <tilted>0</tilted></_>
    <_>
      <rects>
        <_>
          2 0 21 4 -1.</_>
        <_>
          2 2 21 2 2.</_></rects>
      <tilted>0</tilted></_>
    <_>
      <rects>
        <_>
          2 7 12 9 -1.</_>
        <_>
          8 7 6 9 2.</_></rects>
      <tilted>0</tilted></_>
    <_>
      <rects>
        <_>
          2 9 21 9 -1.</_>
        <_>
          9 9 7 9 3.</_></rects>
      <tilted>0</tilted></_>
    <_>
      <rects>
        <_>
          4 5 18 4 -1.</_>
        <_>
          10 5 6 4 3.</_></rects>
      <tilted>0</tilted></_>
    <_>
      <rects>
        <_>
          4 7 6 4 -1.</_>
        <_>
          4 9 6 2 2.</_></rects>
      <tilted>0</tilted></_>
    <_>
      <rects>
        <_>
          4 9 8 2 -1.</_>
        <_>
          4 9 4 1 2.</_>
        <_>
          8 10 4 1 2.</_></rects>
      <tilted>0</tilted></_>
    <_>
      <rects>
        <_>
          4 12 5 4 -1.</_>
        <_>
          4 14 5 2 2.</_></rects>
      <tilted>0</tilted></_>
    <_>
      <rects>
        <_>
          5 0 4 12 -1.</_>
        <_>
          5 4 4 4 3.</_></rects>
      <tilted>0</tilted></_>
    <_>
      <rects>
        <_>
          5 2 6 16 -1.</_>
        <_>
          8 2 3 16 2.</_></rects>
      <tilted>0</tilted></_>
    <_>
      <rects>
        <_>
          5 5 6 15 -1.</_>
        <_>
          5 10 6 5 3.</_></rects>
      <tilted>0</tilted></_>
    <_>
      <rects>
        <_>
          5 11 2 8 -1.</_>
        <_>
          6 11 1 8 2.</_></rects>
      <tilted>0</tilted></_>
    <_>
      <rects>
        <_>
          6 0 5 9 -1.</_>
        <_>
          6 3 5 3 3.</_></rects>
      <tilted>0</tilted></_>
    <_>
      <rects>
        <_>
          6 5 3 15 -1.</_>
        <_>
          6 10 3 5 3.</_></rects>
      <tilted>0</tilted></_>
    <_>
      <rects>
        <_>
          6 11 2 12 -1.</_>
        <_>
          7 11 1 12 2.</_></rects>
      <tilted>0</tilted></_>
    <_>
      <rects>
        <_>
          6 12 3 12 -1.</_>
        <_>
          6 16 3 4 3.</_></rects>
      <tilted>0</tilted></_>
    <_>
      <rects>
        <_>
          7 9 4 13 -1.</_>
        <_>
          9 9 2 13 2.</_></rects>
      <tilted>0</tilted></_>
    <_>
      <rects>
        <_>
          8 8 4 16 -1.</_>
        <_>
          10 8 2 16 2.</_></rects>
      <tilted>0</tilted></_>
    <_>
      <rects>
        <_>
          8 12 4 2 -1.</_>
        <_>
          10 12 2 2 2.</_></rects>
      <tilted>0</tilted></_>
    <_>
      <rects>
        <_>
          9 15 2 9 -1.</_>
        <_>
          9 18 2 3 3.</_></rects>
      <tilted>0</tilted></_>
    <_>
      <rects>
        <_>
          10 3 2 11 -1.</_>
        <_>
          11 3 1 11 2.</_></rects>
      <tilted>0</tilted></_>
    <_>
      <rects>
        <_>
          10 10 5 12 -1.</_>
        <_>
          10 14 5 4 3.</_></rects>
      <tilted>0</tilted></_>
    <_>
      <rects>
        <_>
          10 12 2 10 -1.</_>
        <_>
          11 12 1 10 2.</_></rects>
      <tilted>0</tilted></_>
    <_>
      <rects>
        <_>
          10 13 4 2 -1.</_>
        <_>
          12 13 2 2 2.</_></rects>
      <tilted>0</tilted></_>
    <_>
      <rects>
        <_>
          11 1 2 23 -1.</_>
        <_>
          12 1 1 23 2.</_></rects>
      <tilted>0</tilted></_>
    <_>
      <rects>
        <_>
          11 2 2 6 -1.</_>
        <_>
          12 2 1 6 2.</_></rects>
      <tilted>0</tilted></_>
    <_>
      <rects>
        <_>
          11 10 1 6 -1.</_>
        <_>
          11 12 1 2 3.</_></rects>
      <tilted>0</tilted></_>
    <_>
      <rects>
        <_>
          11 11 2 10 -1.</_>
        <_>
          11 11 1 5 2.</_>
        <_>
          12 16 1 5 2.</_></rects>
      <tilted>0</tilted></_>
    <_>
      <rects>
        <_>
          11 13 2 2 -1.</_>
        <_>
          12 13 1 2 2.</_></rects>
      <tilted>0</tilted></_>
    <_>
      <rects>
        <_>
          11 14 2 2 -1.</_>
        <_>
          11 15 2 1 2.</_></rects>
      <tilted>0</tilted></_>
    <_>
      <rects>
        <_>
          12 2 2 6 -1.</_>
        <_>
          13 2 1 6 2.</_></rects>
      <tilted>0</tilted></_>
    <_>
      <rects>
        <_>
          12 8 8 7 -1.</_>
        <_>
          16 8 4 7 2.</_></rects>
      <tilted>0</tilted></_>
    <_>
      <rects>
        <_>
          12 10 12 3 -1.</_>
        <_>
          18 10 6 3 2.</_></rects>
      <tilted>0</tilted></_>
    <_>
      <rects>
        <_>
          15 4 9 18 -1.</_>
        <_>
          15 10 9 6 3.</_></rects>
      <tilted>0</tilted></_>
    <_>
      <rects>
        <_>
          15 9 7 14 -1.</_>
        <_>
          15 16 7 7 2.</_></rects>
      <tilted>0</tilted></_>
    <_>
      <rects>
        <_>
          16 15 6 6 -1.</_>
        <_>
          16 17 6 2 3.</_></rects>
      <tilted>0</tilted></_>
    <_>
      <rects>
        <_>
          17 2 7 21 -1.</_>
        <_>
          17 9 7 7 3.</_></rects>
      <tilted>0</tilted></_>
    <_>
      <rects>
        <_>
          17 4 3 6 -1.</_>
        <_>
          17 7 3 3 2.</_></rects>
      <tilted>0</tilted></_>
    <_>
      <rects>
        <_>
          17 15 5 9 -1.</_>
        <_>
          17 18 5 3 3.</_></rects>
      <tilted>0</tilted></_>
    <_>
      <rects>
        <_>
          18 0 3 9 -1.</_>
        <_>
          18 3 3 3 3.</_></rects>
      <tilted>0</tilted></_>
    <_>
      <rects>
        <_>
          18 2 1 6 -1.</_>
        <_>
          18 4 1 2 3.</_></rects>
      <tilted>0</tilted></_>
    <_>
      <rects>
        <_>
          18 15 6 9 -1.</_>
        <_>
          18 18 6 3 3.</_></rects>
      <tilted>0</tilted></_>
    <_>
      <rects>
        <_>
          21 0 3 9 -1.</_>
        <_>
          21 3 3 3 3.</_></rects>
      <tilted>0</tilted></_>
    <_>
      <rects>
        <_>
          21 8 3 16 -1.</_>
        <_>
          21 16 3 8 2.</_></rects>
      <tilted>0</tilted></_></features></cascade>
</opencv_storage>
